{
  "version": "v3",
  "trainedAt": "2026-07-06T23:59:43.485Z",
  "splitDate": "2024-01-01",
  "minPriorStatsFights": 2,
  "features": [
    "slpm",
    "sapm",
    "str_acc",
    "str_def",
    "td_avg",
    "td_acc",
    "td_def",
    "sub_avg",
    "kd_per15",
    "kd_absorbed_per15",
    "ctrl_pct",
    "cardio_degradation",
    "experience",
    "win_rate",
    "recent_win_rate",
    "form_trend",
    "age",
    "reach",
    "height",
    "layoff_days"
  ],
  "mu": [
    -0.04612280701754387,
    0.03058897243107758,
    -0.0974385964912283,
    -0.3890150375939844,
    0.031090225563909786,
    0.13812531328320818,
    -0.1473157894736846,
    0.02886215538847125,
    -0.015854636591478753,
    -0.018759398496240608,
    0.08846115288220563,
    -1.8938922305764372,
    0.05864661654135354,
    -0.3350067592949391,
    -0.655789473684211,
    -0.02350877192982458,
    0.15203100152846244,
    0.02431077694235592,
    -0.036090225563909735,
    6.070175438596501
  ],
  "sigma": [
    1.8686821995361569,
    1.5683099723594842,
    11.873923361534864,
    11.546752827501898,
    2.1119935799106138,
    29.195058345957886,
    29.07081891638401,
    1.5250925469420504,
    1.394949971317438,
    0.6490608521009122,
    21.265178611790425,
    80.06964840720566,
    7.136132014140496,
    24.52719079248588,
    34.34742270070931,
    1.3272393831742904,
    5.219270268550555,
    3.1562740102419093,
    2.410129158006941,
    292.89812883048637
  ],
  "w": [
    0.13623912534855295,
    -0.16605961327337776,
    0.13589774095373283,
    0.14224208833088464,
    0.1638269049765897,
    -0.0868612770677573,
    0.06777700959758669,
    -0.0372403908154295,
    -0.08626979015339975,
    -0.09749374005014497,
    -0.04568293596087171,
    0.05445456567283556,
    0.08536758727467268,
    0.15017344315527173,
    -0.018653735822294803,
    0.011114845066600324,
    -0.335389675204227,
    0.1410692223223741,
    -0.05917924651303649,
    0.005587098606979821
  ],
  "b": -0.07199847228000715,
  "metrics": {
    "train": {
      "n": 3990,
      "accuracy": 0.6197994987468671,
      "logloss": 0.6529407719169557
    },
    "test": {
      "n": 847,
      "accuracy": 0.6304604486422668,
      "logloss": 0.6452258755611816,
      "brier": 0.2265398051271278
    }
  }
}