{
  "version": "v3",
  "trainedAt": "2026-07-10T22:15:03.666Z",
  "splitDate": "2024-01-01",
  "minPriorStatsFights": 2,
  "features": [
    "slpm",
    "sapm",
    "str_acc",
    "str_def",
    "td_avg",
    "td_acc",
    "td_def",
    "sub_avg",
    "kd_per15",
    "kd_absorbed_per15",
    "cardio_degradation",
    "experience",
    "win_rate",
    "recent_win_rate",
    "form_trend",
    "age",
    "reach",
    "height",
    "layoff_days"
  ],
  "mu": [
    -0.04603508771929825,
    0.030538847117794376,
    -0.09850375939849629,
    -0.3876766917293227,
    0.030889724310776953,
    0.15199498746867204,
    -0.14448621553884758,
    0.028115288220551454,
    -0.015849624060150436,
    -0.018759398496240608,
    -1.8918045112781914,
    0.05864661654135354,
    -0.3350067592949391,
    -0.655789473684211,
    -0.02359649122807019,
    0.15203100152846244,
    0.02431077694235592,
    -0.036090225563909735,
    6.070175438596501
  ],
  "sigma": [
    1.8687330941616458,
    1.56829845229099,
    11.874353313270682,
    11.543996527646257,
    2.1115397190990732,
    29.19797492085155,
    29.066945001211373,
    1.5256669544437258,
    1.3949533161828196,
    0.6490608521009122,
    80.07357830713657,
    7.136132014140496,
    24.52719079248588,
    34.34742270070931,
    1.3272068480955777,
    5.219270268550555,
    3.1562740102419093,
    2.410129158006941,
    292.89812883048637
  ],
  "w": [
    0.1354578719941947,
    -0.15399315172130787,
    0.12974255929657072,
    0.15026312420859464,
    0.13535126547432133,
    -0.08364420978608843,
    0.06626841023582442,
    -0.038833596030745474,
    -0.08446286882074196,
    -0.09855165944504356,
    0.053115986593421066,
    0.08432019479566909,
    0.14921157326458567,
    -0.02092903503077803,
    0.0117695174030348,
    -0.33470707240240677,
    0.14232332367732717,
    -0.0591993752685983,
    0.005634414266163235
  ],
  "b": -0.07197455752200681,
  "metrics": {
    "train": {
      "n": 3990,
      "accuracy": 0.6172932330827068,
      "logloss": 0.6530441314371236
    },
    "test": {
      "n": 847,
      "accuracy": 0.6340023612750886,
      "logloss": 0.6453988769041772,
      "brier": 0.22667134466838731
    }
  }
}